1.073475
-0.544754
0.750596
-0.264516
-0.490043
-0.467062
1.462132
1.504056
-0.621389
0.187883
0.395087
-0.833701
0.615115
-0.581890
-0.746298
0.830845
-0.777304
-0.497521
0.542383
0.305653
-1.905314
0.473748
1.681869
-0.724897
1.840948
-0.600823
-0.026229
-0.698829
0.095268
0.342287
0.799918
-0.951834
-0.614076
0.509474
-0.910255
0.870776
-0.757339
-0.422914
2.024335
2.005388
0.701373
-0.439053
0.035714
0.193852
-0.063280
0.001888
-0.700263
-0.637911
0.345497
0.290306
1.742877
-0.564842
-0.821523
0.428326
-0.639363
0.740396
0.836748
0.529985
-0.677184
0.586683
1.516016
-0.055916
-1.665320
-0.708855
0.532824
0.468415
0.068437
0.895945
0.261880
0.585849
1.147956
0.502968
0.685725
-0.484371
-0.081515
-1.602120
-0.041258
0.504835
-0.456619
0.391319
-0.305853
0.301241
-0.576034
-0.262759
-2.097549
0.856788
-0.011481
0.010287
1.098459
0.832180
0.068230
-0.448985
-0.054990
-0.071903
1.489364
-1.968611
0.630247
-0.326224
-0.342264
1.671796
-0.355720
0.203099
0.450155
1.085203
-0.263546
-0.725751
0.780647
-0.608344
0.944698
-0.014309
0.260791
-0.477309
-0.071403
-0.450961
1.145328
0.718276
-0.405357
-0.764062
0.346342
-0.534813
-0.263367
0.319319
0.459508
1.266264
0.881500
0.213432
-1.878592
-0.085977
0.177805
0.666727
0.920415
0.871609
0.619972
0.341816
0.314589
-1.052345
0.183469
-0.492031
-0.719630
1.013233
-0.526999
0.788828
-0.267416
0.573676
-0.351517
0.574789
-0.057034
-0.665392
1.111592
0.022094
-0.194048
-0.459517
-0.533533
-0.029879
-0.070508
-0.306848
-0.199895
-0.628550
0.271560
1.242666
0.173730
-0.551856
-0.206569
0.262017
-0.033655
0.786774
-0.208505
-0.452115
-0.422749
-0.489955
0.816471
-0.158786
0.758739
0.007972
0.755914
-0.136933
-0.736746
-0.225053
-0.456523
0.524465
-0.041105
-0.066913
0.446612
-0.044642
-0.299893
0.623790
0.341658
0.804704
-1.227542
-0.488892
0.796174
0.888756
